double score(List<double> input) {
  double var0;
  if ((input[4]) <= (469.0)) {
    if ((input[4]) <= (467.5)) {
      if ((input[4]) <= (426.5)) {
        if ((input[1]) <= (362.0)) {
          if ((input[3]) <= (344.0)) {
            if ((input[2]) <= (341.0)) {
              if ((input[0]) <= (193.0)) {
                var0 = 14.042857142857141;
              } else {
                var0 = 14.471428571428572;
              }
            } else {
              var0 = 13.442857142857141;
            }
          } else {
            if ((input[4]) <= (413.0)) {
              if ((input[0]) <= (186.5)) {
                var0 = 13.5;
              } else {
                if ((input[3]) <= (353.0)) {
                  if ((input[2]) <= (285.5)) {
                    var0 = 13.228571428571428;
                  } else {
                    var0 = 13.157142857142857;
                  }
                } else {
                  if ((input[4]) <= (399.0)) {
                    if ((input[3]) <= (371.5)) {
                      var0 = 13.328571428571431;
                    } else {
                      var0 = 13.385714285714286;
                    }
                  } else {
                    var0 = 13.2;
                  }
                }
              }
            } else {
              if ((input[1]) <= (349.0)) {
                var0 = 12.799999999999999;
              } else {
                var0 = 13.071428571428573;
              }
            }
          }
        } else {
          if ((input[5]) <= (107.5)) {
            if ((input[5]) <= (80.5)) {
              var0 = 14.714285714285714;
            } else {
              if ((input[1]) <= (373.0)) {
                var0 = 13.414285714285715;
              } else {
                if ((input[4]) <= (403.5)) {
                  var0 = 13.671428571428573;
                } else {
                  if ((input[3]) <= (393.5)) {
                    var0 = 13.828571428571431;
                  } else {
                    var0 = 13.742857142857144;
                  }
                }
              }
            }
          } else {
            var0 = 14.528571428571428;
          }
        }
      } else {
        if ((input[5]) <= (94.5)) {
          if ((input[5]) <= (81.5)) {
            if ((input[2]) <= (309.5)) {
              var0 = 13.5;
            } else {
              var0 = 13.471428571428573;
            }
          } else {
            if ((input[0]) <= (199.0)) {
              var0 = 13.814285714285715;
            } else {
              if ((input[4]) <= (455.5)) {
                var0 = 13.642857142857142;
              } else {
                var0 = 13.57142857142857;
              }
            }
          }
        } else {
          if ((input[2]) <= (297.0)) {
            var0 = 11.985714285714284;
          } else {
            if ((input[0]) <= (232.0)) {
              if ((input[5]) <= (116.0)) {
                if ((input[0]) <= (206.5)) {
                  var0 = 13.228571428571428;
                } else {
                  if ((input[2]) <= (335.5)) {
                    var0 = 13.100000000000003;
                  } else {
                    var0 = 13.042857142857144;
                  }
                }
              } else {
                var0 = 13.328571428571427;
              }
            } else {
              if ((input[2]) <= (311.5)) {
                var0 = 12.814285714285715;
              } else {
                var0 = 12.885714285714286;
              }
            }
          }
        }
      }
    } else {
      var0 = 14.542857142857143;
    }
  } else {
    if ((input[4]) <= (496.5)) {
      if ((input[4]) <= (489.5)) {
        if ((input[4]) <= (471.0)) {
          var0 = 11.4;
        } else {
          if ((input[1]) <= (380.5)) {
            if ((input[4]) <= (476.0)) {
              var0 = 12.7;
            } else {
              var0 = 12.785714285714286;
            }
          } else {
            if ((input[5]) <= (94.0)) {
              if ((input[0]) <= (287.0)) {
                var0 = 13.014285714285714;
              } else {
                var0 = 12.885714285714284;
              }
            } else {
              if ((input[4]) <= (482.5)) {
                var0 = 13.299999999999999;
              } else {
                var0 = 13.357142857142858;
              }
            }
          }
        }
      } else {
        if ((input[3]) <= (432.5)) {
          var0 = 11.299999999999999;
        } else {
          var0 = 12.057142857142855;
        }
      }
    } else {
      if ((input[2]) <= (372.0)) {
        if ((input[3]) <= (466.5)) {
          var0 = 13.885714285714286;
        } else {
          var0 = 13.871428571428572;
        }
      } else {
        var0 = 12.771428571428572;
      }
    }
  }
  double var1;
  if ((input[5]) <= (129.5)) {
    if ((input[0]) <= (219.0)) {
      if ((input[5]) <= (80.0)) {
        var1 = 14.714285714285714;
      } else {
        if ((input[4]) <= (463.0)) {
          if ((input[5]) <= (112.5)) {
            if ((input[5]) <= (109.0)) {
              if ((input[5]) <= (100.5)) {
                if ((input[4]) <= (381.5)) {
                  var1 = 14.299999999999999;
                } else {
                  if ((input[1]) <= (365.5)) {
                    var1 = 13.057142857142855;
                  } else {
                    if ((input[5]) <= (85.0)) {
                      var1 = 13.652380952380952;
                    } else {
                      var1 = 13.771428571428572;
                    }
                  }
                }
              } else {
                if ((input[1]) <= (339.5)) {
                  var1 = 12.414285714285715;
                } else {
                  if ((input[4]) <= (433.0)) {
                    var1 = 13.228571428571428;
                  } else {
                    var1 = 13.3;
                  }
                }
              }
            } else {
              if ((input[1]) <= (357.0)) {
                var1 = 14.27142857142857;
              } else {
                var1 = 14.528571428571428;
              }
            }
          } else {
            if ((input[2]) <= (310.0)) {
              if ((input[4]) <= (371.0)) {
                var1 = 13.328571428571431;
              } else {
                var1 = 13.157142857142857;
              }
            } else {
              var1 = 12.985714285714286;
            }
          }
        } else {
          var1 = 14.542857142857143;
        }
      }
    } else {
      if ((input[2]) <= (284.0)) {
        var1 = 14.471428571428572;
      } else {
        if ((input[2]) <= (368.5)) {
          if ((input[2]) <= (337.5)) {
            if ((input[1]) <= (418.0)) {
              if ((input[5]) <= (108.0)) {
                if ((input[4]) <= (484.5)) {
                  if ((input[5]) <= (82.5)) {
                    var1 = 13.199999999999998;
                  } else {
                    if ((input[4]) <= (437.5)) {
                      var1 = 13.414285714285716;
                    } else {
                      var1 = 13.357142857142856;
                    }
                  }
                } else {
                  var1 = 12.885714285714284;
                }
              } else {
                if ((input[5]) <= (120.5)) {
                  if ((input[2]) <= (322.5)) {
                    if ((input[0]) <= (270.0)) {
                      var1 = 13.114285714285714;
                    } else {
                      var1 = 13.085714285714287;
                    }
                  } else {
                    if ((input[0]) <= (243.5)) {
                      var1 = 13.042857142857144;
                    } else {
                      var1 = 13.028571428571427;
                    }
                  }
                } else {
                  if ((input[0]) <= (231.5)) {
                    var1 = 12.785714285714286;
                  } else {
                    if ((input[3]) <= (377.0)) {
                      var1 = 12.92857142857143;
                    } else {
                      var1 = 12.885714285714286;
                    }
                  }
                }
              }
            } else {
              var1 = 12.057142857142855;
            }
          } else {
            if ((input[4]) <= (490.0)) {
              if ((input[1]) <= (397.5)) {
                var1 = 13.042857142857143;
              } else {
                if ((input[2]) <= (352.0)) {
                  if ((input[1]) <= (404.0)) {
                    var1 = 13.471428571428573;
                  } else {
                    var1 = 13.485714285714286;
                  }
                } else {
                  var1 = 13.299999999999999;
                }
              }
            } else {
              if ((input[1]) <= (430.5)) {
                if ((input[0]) <= (250.0)) {
                  var1 = 14.085714285714285;
                } else {
                  var1 = 13.871428571428572;
                }
              } else {
                var1 = 13.671428571428573;
              }
            }
          }
        } else {
          var1 = 12.771428571428572;
        }
      }
    }
  } else {
    if ((input[1]) <= (381.5)) {
      var1 = 12.7;
    } else {
      var1 = 11.299999999999999;
    }
  }
  double var2;
  if ((input[4]) <= (446.5)) {
    if ((input[2]) <= (278.5)) {
      if ((input[0]) <= (206.0)) {
        if ((input[4]) <= (387.0)) {
          var2 = 14.299999999999999;
        } else {
          var2 = 13.5;
        }
      } else {
        var2 = 15.485714285714284;
      }
    } else {
      if ((input[0]) <= (175.5)) {
        if ((input[3]) <= (392.5)) {
          if ((input[3]) <= (375.5)) {
            if ((input[1]) <= (372.5)) {
              if ((input[2]) <= (295.5)) {
                var2 = 14.042857142857141;
              } else {
                var2 = 14.27142857142857;
              }
            } else {
              var2 = 13.671428571428573;
            }
          } else {
            var2 = 13.057142857142855;
          }
        } else {
          var2 = 14.714285714285714;
        }
      } else {
        if ((input[5]) <= (107.5)) {
          if ((input[2]) <= (295.0)) {
            if ((input[0]) <= (204.0)) {
              var2 = 13.171428571428573;
            } else {
              if ((input[5]) <= (85.5)) {
                var2 = 13.2;
              } else {
                var2 = 13.228571428571428;
              }
            }
          } else {
            if ((input[5]) <= (98.5)) {
              if ((input[1]) <= (390.5)) {
                if ((input[3]) <= (381.5)) {
                  var2 = 13.814285714285715;
                } else {
                  var2 = 13.828571428571431;
                }
              } else {
                var2 = 13.642857142857142;
              }
            } else {
              if ((input[0]) <= (205.0)) {
                var2 = 13.3;
              } else {
                if ((input[0]) <= (270.0)) {
                  if ((input[4]) <= (402.5)) {
                    var2 = 13.442857142857141;
                  } else {
                    var2 = 13.457142857142857;
                  }
                } else {
                  var2 = 13.414285714285715;
                }
              }
            }
          }
        } else {
          if ((input[3]) <= (367.5)) {
            if ((input[1]) <= (355.5)) {
              var2 = 13.028571428571427;
            } else {
              var2 = 12.92857142857143;
            }
          } else {
            if ((input[4]) <= (405.0)) {
              var2 = 13.385714285714286;
            } else {
              if ((input[0]) <= (215.5)) {
                var2 = 13.228571428571428;
              } else {
                if ((input[5]) <= (114.0)) {
                  var2 = 13.042857142857144;
                } else {
                  var2 = 13.114285714285714;
                }
              }
            }
          }
        }
      }
    }
  } else {
    if ((input[2]) <= (347.5)) {
      if ((input[1]) <= (380.0)) {
        if ((input[5]) <= (119.0)) {
          if ((input[2]) <= (326.5)) {
            var2 = 13.357142857142858;
          } else {
            var2 = 13.100000000000003;
          }
        } else {
          if ((input[4]) <= (476.0)) {
            var2 = 12.7;
          } else {
            var2 = 12.785714285714286;
          }
        }
      } else {
        if ((input[5]) <= (109.5)) {
          if ((input[0]) <= (260.5)) {
            if ((input[3]) <= (410.5)) {
              var2 = 11.985714285714286;
            } else {
              var2 = 12.057142857142855;
            }
          } else {
            var2 = 13.357142857142858;
          }
        } else {
          if ((input[1]) <= (390.0)) {
            var2 = 11.4;
          } else {
            var2 = 11.299999999999999;
          }
        }
      }
    } else {
      if ((input[5]) <= (98.5)) {
        var2 = 13.014285714285714;
      } else {
        if ((input[4]) <= (516.5)) {
          if ((input[5]) <= (110.5)) {
            var2 = 13.485714285714286;
          } else {
            var2 = 13.671428571428573;
          }
        } else {
          var2 = 13.885714285714286;
        }
      }
    }
  }
  double var3;
  if ((input[4]) <= (410.5)) {
    if ((input[2]) <= (278.5)) {
      if ((input[4]) <= (398.0)) {
        var3 = 15.485714285714284;
      } else {
        var3 = 13.5;
      }
    } else {
      if ((input[3]) <= (343.5)) {
        if ((input[4]) <= (391.5)) {
          var3 = 14.471428571428572;
        } else {
          var3 = 14.042857142857141;
        }
      } else {
        if ((input[4]) <= (402.0)) {
          if ((input[2]) <= (281.0)) {
            var3 = 12.414285714285715;
          } else {
            if ((input[3]) <= (344.5)) {
              var3 = 12.92857142857143;
            } else {
              if ((input[4]) <= (371.0)) {
                var3 = 13.328571428571431;
              } else {
                if ((input[1]) <= (336.0)) {
                  var3 = 13.157142857142857;
                } else {
                  if ((input[5]) <= (85.5)) {
                    var3 = 13.2;
                  } else {
                    var3 = 13.228571428571428;
                  }
                }
              }
            }
          }
        } else {
          if ((input[5]) <= (102.0)) {
            var3 = 13.742857142857142;
          } else {
            var3 = 14.27142857142857;
          }
        }
      }
    }
  } else {
    if ((input[2]) <= (337.0)) {
      if ((input[3]) <= (393.5)) {
        if ((input[1]) <= (361.5)) {
          if ((input[4]) <= (433.0)) {
            if ((input[4]) <= (426.5)) {
              if ((input[4]) <= (411.5)) {
                var3 = 13.028571428571427;
              } else {
                if ((input[2]) <= (297.0)) {
                  var3 = 13.085714285714287;
                } else {
                  if ((input[3]) <= (389.0)) {
                    var3 = 13.057142857142855;
                  } else {
                    var3 = 13.071428571428573;
                  }
                }
              }
            } else {
              var3 = 13.171428571428573;
            }
          } else {
            if ((input[1]) <= (340.5)) {
              var3 = 13.357142857142858;
            } else {
              var3 = 13.3;
            }
          }
        } else {
          if ((input[0]) <= (228.5)) {
            var3 = 13.828571428571431;
          } else {
            if ((input[3]) <= (373.0)) {
              var3 = 13.414285714285715;
            } else {
              var3 = 13.57142857142857;
            }
          }
        }
      } else {
        if ((input[5]) <= (127.0)) {
          if ((input[3]) <= (397.0)) {
            var3 = 11.4;
          } else {
            if ((input[5]) <= (102.0)) {
              if ((input[3]) <= (452.5)) {
                if ((input[4]) <= (471.5)) {
                  var3 = 11.642857142857142;
                } else {
                  var3 = 12.057142857142855;
                }
              } else {
                var3 = 12.885714285714284;
              }
            } else {
              if ((input[1]) <= (399.0)) {
                if ((input[5]) <= (123.5)) {
                  if ((input[1]) <= (369.5)) {
                    var3 = 12.814285714285715;
                  } else {
                    var3 = 12.785714285714286;
                  }
                } else {
                  var3 = 12.885714285714286;
                }
              } else {
                var3 = 12.985714285714286;
              }
            }
          }
        } else {
          var3 = 11.299999999999999;
        }
      }
    } else {
      if ((input[5]) <= (104.5)) {
        if ((input[2]) <= (348.5)) {
          if ((input[5]) <= (81.5)) {
            var3 = 13.471428571428573;
          } else {
            var3 = 13.642857142857142;
          }
        } else {
          if ((input[3]) <= (456.5)) {
            var3 = 12.771428571428572;
          } else {
            if ((input[4]) <= (477.0)) {
              var3 = 13.042857142857143;
            } else {
              var3 = 13.299999999999999;
            }
          }
        }
      } else {
        if ((input[4]) <= (472.5)) {
          var3 = 13.328571428571427;
        } else {
          if ((input[0]) <= (250.0)) {
            var3 = 14.085714285714285;
          } else {
            if ((input[5]) <= (110.5)) {
              var3 = 13.871428571428572;
            } else {
              var3 = 13.885714285714286;
            }
          }
        }
      }
    }
  }
  double var4;
  if ((input[2]) <= (278.5)) {
    if ((input[1]) <= (326.0)) {
      if ((input[2]) <= (268.5)) {
        var4 = 14.299999999999999;
      } else {
        var4 = 13.5;
      }
    } else {
      var4 = 15.485714285714286;
    }
  } else {
    if ((input[4]) <= (445.5)) {
      if ((input[2]) <= (291.0)) {
        if ((input[4]) <= (391.0)) {
          var4 = 12.414285714285716;
        } else {
          if ((input[0]) <= (190.5)) {
            var4 = 13.171428571428573;
          } else {
            if ((input[4]) <= (414.5)) {
              var4 = 12.92857142857143;
            } else {
              var4 = 13.042857142857141;
            }
          }
        }
      } else {
        if ((input[0]) <= (175.5)) {
          if ((input[3]) <= (361.0)) {
            var4 = 14.27142857142857;
          } else {
            if ((input[3]) <= (375.5)) {
              var4 = 13.671428571428573;
            } else {
              var4 = 13.057142857142855;
            }
          }
        } else {
          if ((input[5]) <= (106.5)) {
            if ((input[1]) <= (377.5)) {
              if ((input[5]) <= (91.0)) {
                var4 = 13.199999999999998;
              } else {
                if ((input[0]) <= (270.0)) {
                  if ((input[3]) <= (361.0)) {
                    var4 = 13.442857142857141;
                  } else {
                    var4 = 13.457142857142857;
                  }
                } else {
                  var4 = 13.414285714285715;
                }
              }
            } else {
              if ((input[5]) <= (84.5)) {
                var4 = 13.642857142857142;
              } else {
                if ((input[0]) <= (195.0)) {
                  var4 = 13.828571428571431;
                } else {
                  var4 = 13.742857142857144;
                }
              }
            }
          } else {
            if ((input[4]) <= (404.0)) {
              if ((input[3]) <= (371.5)) {
                var4 = 13.328571428571431;
              } else {
                var4 = 13.385714285714286;
              }
            } else {
              if ((input[5]) <= (108.5)) {
                if ((input[3]) <= (405.5)) {
                  var4 = 13.3;
                } else {
                  var4 = 13.228571428571428;
                }
              } else {
                if ((input[0]) <= (261.5)) {
                  if ((input[3]) <= (378.0)) {
                    var4 = 13.028571428571427;
                  } else {
                    var4 = 13.071428571428573;
                  }
                } else {
                  var4 = 13.114285714285714;
                }
              }
            }
          }
        }
      }
    } else {
      if ((input[2]) <= (337.5)) {
        if ((input[1]) <= (391.0)) {
          if ((input[3]) <= (397.0)) {
            var4 = 11.4;
          } else {
            if ((input[5]) <= (115.0)) {
              var4 = 13.357142857142858;
            } else {
              if ((input[5]) <= (123.5)) {
                var4 = 12.785714285714286;
              } else {
                var4 = 12.885714285714286;
              }
            }
          }
        } else {
          if ((input[0]) <= (218.5)) {
            var4 = 12.985714285714286;
          } else {
            if ((input[1]) <= (415.5)) {
              if ((input[2]) <= (325.5)) {
                var4 = 11.642857142857144;
              } else {
                var4 = 11.299999999999999;
              }
            } else {
              var4 = 12.057142857142855;
            }
          }
        }
      } else {
        if ((input[5]) <= (104.5)) {
          if ((input[2]) <= (366.0)) {
            if ((input[1]) <= (397.5)) {
              var4 = 13.042857142857143;
            } else {
              if ((input[1]) <= (417.0)) {
                var4 = 13.471428571428573;
              } else {
                var4 = 13.299999999999999;
              }
            }
          } else {
            var4 = 12.771428571428572;
          }
        } else {
          if ((input[4]) <= (502.5)) {
            var4 = 13.871428571428572;
          } else {
            var4 = 14.085714285714285;
          }
        }
      }
    }
  }
  double var5;
  if ((input[4]) <= (396.0)) {
    if ((input[4]) <= (385.5)) {
      if ((input[5]) <= (113.5)) {
        var5 = 12.414285714285715;
      } else {
        if ((input[5]) <= (121.0)) {
          var5 = 13.157142857142857;
        } else {
          var5 = 13.328571428571431;
        }
      }
    } else {
      if ((input[5]) <= (97.0)) {
        var5 = 15.485714285714284;
      } else {
        if ((input[0]) <= (178.5)) {
          var5 = 14.042857142857141;
        } else {
          if ((input[4]) <= (392.5)) {
            var5 = 14.471428571428572;
          } else {
            var5 = 14.528571428571428;
          }
        }
      }
    }
  } else {
    if ((input[4]) <= (496.5)) {
      if ((input[4]) <= (447.5)) {
        if ((input[0]) <= (165.0)) {
          var5 = 14.714285714285714;
        } else {
          if ((input[5]) <= (97.0)) {
            if ((input[0]) <= (215.5)) {
              if ((input[2]) <= (313.5)) {
                var5 = 13.828571428571431;
              } else {
                var5 = 13.742857142857144;
              }
            } else {
              var5 = 13.2;
            }
          } else {
            if ((input[2]) <= (305.5)) {
              if ((input[1]) <= (338.5)) {
                var5 = 13.085714285714287;
              } else {
                if ((input[4]) <= (430.5)) {
                  if ((input[3]) <= (355.0)) {
                    var5 = 12.92857142857143;
                  } else {
                    if ((input[0]) <= (204.5)) {
                      var5 = 12.799999999999999;
                    } else {
                      var5 = 12.814285714285715;
                    }
                  }
                } else {
                  var5 = 13.042857142857141;
                }
              }
            } else {
              if ((input[5]) <= (107.0)) {
                if ((input[4]) <= (426.5)) {
                  var5 = 13.414285714285715;
                } else {
                  var5 = 13.457142857142857;
                }
              } else {
                if ((input[4]) <= (404.0)) {
                  var5 = 13.385714285714286;
                } else {
                  if ((input[2]) <= (345.5)) {
                    if ((input[5]) <= (121.0)) {
                      var5 = 13.098214285714286;
                    } else {
                      var5 = 12.885714285714286;
                    }
                  } else {
                    var5 = 13.328571428571427;
                  }
                }
              }
            }
          }
        }
      } else {
        if ((input[2]) <= (334.0)) {
          if ((input[0]) <= (224.0)) {
            if ((input[5]) <= (105.5)) {
              var5 = 11.985714285714284;
            } else {
              if ((input[3]) <= (409.5)) {
                var5 = 12.785714285714286;
              } else {
                var5 = 12.985714285714286;
              }
            }
          } else {
            if ((input[2]) <= (320.5)) {
              if ((input[1]) <= (390.5)) {
                var5 = 13.357142857142858;
              } else {
                var5 = 11.642857142857142;
              }
            } else {
              if ((input[1]) <= (390.0)) {
                var5 = 11.4;
              } else {
                var5 = 11.299999999999999;
              }
            }
          }
        } else {
          if ((input[5]) <= (82.5)) {
            var5 = 13.471428571428573;
          } else {
            if ((input[5]) <= (123.0)) {
              if ((input[2]) <= (343.0)) {
                var5 = 13.100000000000003;
              } else {
                if ((input[1]) <= (408.0)) {
                  var5 = 13.042857142857143;
                } else {
                  var5 = 13.014285714285714;
                }
              }
            } else {
              var5 = 12.7;
            }
          }
        }
      }
    } else {
      if ((input[1]) <= (415.0)) {
        var5 = 14.085714285714285;
      } else {
        if ((input[3]) <= (466.5)) {
          var5 = 13.885714285714286;
        } else {
          var5 = 13.871428571428572;
        }
      }
    }
  }
  double var6;
  if ((input[4]) <= (446.5)) {
    if ((input[0]) <= (173.0)) {
      if ((input[3]) <= (392.5)) {
        if ((input[1]) <= (352.0)) {
          if ((input[3]) <= (350.5)) {
            var6 = 14.042857142857141;
          } else {
            var6 = 14.27142857142857;
          }
        } else {
          if ((input[3]) <= (375.5)) {
            var6 = 13.671428571428573;
          } else {
            var6 = 13.057142857142855;
          }
        }
      } else {
        var6 = 14.714285714285714;
      }
    } else {
      if ((input[5]) <= (97.0)) {
        if ((input[5]) <= (83.5)) {
          if ((input[4]) <= (416.0)) {
            var6 = 13.2;
          } else {
            var6 = 13.5;
          }
        } else {
          if ((input[3]) <= (356.0)) {
            var6 = 14.299999999999999;
          } else {
            if ((input[2]) <= (313.5)) {
              if ((input[3]) <= (381.5)) {
                var6 = 13.814285714285715;
              } else {
                var6 = 13.828571428571431;
              }
            } else {
              var6 = 13.742857142857144;
            }
          }
        }
      } else {
        if ((input[2]) <= (289.0)) {
          if ((input[4]) <= (391.0)) {
            var6 = 12.414285714285715;
          } else {
            if ((input[0]) <= (209.0)) {
              var6 = 12.799999999999999;
            } else {
              var6 = 12.92857142857143;
            }
          }
        } else {
          if ((input[3]) <= (389.5)) {
            if ((input[2]) <= (295.5)) {
              if ((input[1]) <= (338.5)) {
                var6 = 13.085714285714287;
              } else {
                var6 = 13.042857142857141;
              }
            } else {
              if ((input[1]) <= (378.0)) {
                if ((input[0]) <= (205.0)) {
                  var6 = 13.300000000000002;
                } else {
                  if ((input[3]) <= (384.0)) {
                    if ((input[0]) <= (270.0)) {
                      var6 = 13.44642857142857;
                    } else {
                      var6 = 13.414285714285715;
                    }
                  } else {
                    var6 = 13.385714285714286;
                  }
                }
              } else {
                var6 = 13.114285714285714;
              }
            }
          } else {
            if ((input[0]) <= (232.0)) {
              if ((input[3]) <= (404.5)) {
                if ((input[4]) <= (433.0)) {
                  var6 = 13.071428571428575;
                } else {
                  var6 = 13.042857142857144;
                }
              } else {
                var6 = 13.328571428571427;
              }
            } else {
              var6 = 12.814285714285715;
            }
          }
        }
      }
    }
  } else {
    if ((input[2]) <= (318.5)) {
      if ((input[5]) <= (109.5)) {
        if ((input[2]) <= (305.5)) {
          var6 = 11.985714285714284;
        } else {
          var6 = 11.642857142857144;
        }
      } else {
        var6 = 12.785714285714286;
      }
    } else {
      if ((input[0]) <= (276.0)) {
        if ((input[1]) <= (426.5)) {
          if ((input[3]) <= (415.0)) {
            if ((input[0]) <= (231.0)) {
              var6 = 12.7;
            } else {
              var6 = 12.885714285714286;
            }
          } else {
            if ((input[5]) <= (122.0)) {
              if ((input[4]) <= (485.0)) {
                var6 = 13.100000000000003;
              } else {
                var6 = 12.771428571428572;
              }
            } else {
              var6 = 14.085714285714285;
            }
          }
        } else {
          var6 = 12.057142857142855;
        }
      } else {
        if ((input[4]) <= (516.5)) {
          if ((input[0]) <= (306.5)) {
            var6 = 13.57142857142857;
          } else {
            var6 = 13.671428571428573;
          }
        } else {
          var6 = 13.885714285714286;
        }
      }
    }
  }
  double var7;
  if ((input[4]) <= (395.0)) {
    if ((input[5]) <= (111.0)) {
      if ((input[0]) <= (164.0)) {
        var7 = 14.042857142857141;
      } else {
        if ((input[1]) <= (324.0)) {
          var7 = 14.299999999999999;
        } else {
          var7 = 14.471428571428572;
        }
      }
    } else {
      var7 = 13.328571428571431;
    }
  } else {
    if ((input[5]) <= (128.0)) {
      if ((input[0]) <= (274.5)) {
        if ((input[4]) <= (447.0)) {
          if ((input[0]) <= (215.5)) {
            if ((input[5]) <= (109.0)) {
              if ((input[1]) <= (373.0)) {
                if ((input[5]) <= (87.5)) {
                  var7 = 13.5;
                } else {
                  if ((input[3]) <= (368.5)) {
                    var7 = 12.799999999999999;
                  } else {
                    if ((input[0]) <= (173.0)) {
                      var7 = 13.057142857142855;
                    } else {
                      var7 = 13.232142857142856;
                    }
                  }
                }
              } else {
                if ((input[1]) <= (389.0)) {
                  if ((input[5]) <= (90.5)) {
                    var7 = 13.828571428571431;
                  } else {
                    var7 = 13.742857142857144;
                  }
                } else {
                  if ((input[2]) <= (325.0)) {
                    var7 = 13.671428571428573;
                  } else {
                    var7 = 13.642857142857142;
                  }
                }
              }
            } else {
              var7 = 14.27142857142857;
            }
          } else {
            if ((input[2]) <= (305.5)) {
              if ((input[5]) <= (92.5)) {
                var7 = 13.199999999999998;
              } else {
                if ((input[3]) <= (339.0)) {
                  var7 = 13.085714285714287;
                } else {
                  if ((input[1]) <= (359.0)) {
                    var7 = 12.92857142857143;
                  } else {
                    var7 = 12.814285714285715;
                  }
                }
              }
            } else {
              if ((input[4]) <= (436.5)) {
                if ((input[2]) <= (314.5)) {
                  var7 = 13.457142857142857;
                } else {
                  var7 = 13.385714285714286;
                }
              } else {
                if ((input[0]) <= (227.0)) {
                  var7 = 13.328571428571427;
                } else {
                  var7 = 13.042857142857144;
                }
              }
            }
          }
        } else {
          if ((input[0]) <= (235.5)) {
            if ((input[5]) <= (113.5)) {
              if ((input[5]) <= (104.0)) {
                var7 = 11.985714285714284;
              } else {
                var7 = 11.4;
              }
            } else {
              if ((input[4]) <= (454.5)) {
                var7 = 13.100000000000003;
              } else {
                var7 = 12.985714285714286;
              }
            }
          } else {
            if ((input[0]) <= (268.0)) {
              if ((input[1]) <= (391.0)) {
                if ((input[1]) <= (357.5)) {
                  var7 = 13.357142857142858;
                } else {
                  var7 = 13.357142857142858;
                }
              } else {
                var7 = 13.471428571428573;
              }
            } else {
              if ((input[2]) <= (353.0)) {
                var7 = 13.014285714285714;
              } else {
                var7 = 13.042857142857143;
              }
            }
          }
        }
      } else {
        if ((input[1]) <= (436.5)) {
          if ((input[0]) <= (295.5)) {
            if ((input[2]) <= (335.0)) {
              var7 = 13.414285714285715;
            } else {
              var7 = 13.299999999999999;
            }
          } else {
            var7 = 13.57142857142857;
          }
        } else {
          if ((input[4]) <= (516.5)) {
            var7 = 13.671428571428573;
          } else {
            var7 = 13.885714285714286;
          }
        }
      }
    } else {
      if ((input[5]) <= (130.5)) {
        var7 = 11.299999999999999;
      } else {
        var7 = 12.7;
      }
    }
  }
  double var8;
  if ((input[3]) <= (393.5)) {
    if ((input[5]) <= (102.5)) {
      if ((input[4]) <= (394.5)) {
        if ((input[4]) <= (377.0)) {
          var8 = 14.299999999999999;
        } else {
          var8 = 14.471428571428572;
        }
      } else {
        if ((input[1]) <= (365.5)) {
          if ((input[1]) <= (337.5)) {
            if ((input[4]) <= (441.5)) {
              var8 = 13.5;
            } else {
              var8 = 13.357142857142858;
            }
          } else {
            if ((input[1]) <= (348.5)) {
              var8 = 12.799999999999999;
            } else {
              var8 = 13.057142857142855;
            }
          }
        } else {
          if ((input[2]) <= (311.0)) {
            var8 = 13.828571428571431;
          } else {
            if ((input[3]) <= (375.5)) {
              var8 = 13.671428571428573;
            } else {
              var8 = 13.57142857142857;
            }
          }
        }
      }
    } else {
      if ((input[2]) <= (283.5)) {
        var8 = 12.414285714285716;
      } else {
        if ((input[1]) <= (362.0)) {
          if ((input[0]) <= (238.0)) {
            if ((input[2]) <= (291.0)) {
              if ((input[0]) <= (204.5)) {
                var8 = 13.042857142857141;
              } else {
                var8 = 13.157142857142857;
              }
            } else {
              if ((input[3]) <= (389.5)) {
                if ((input[2]) <= (307.5)) {
                  if ((input[3]) <= (373.0)) {
                    var8 = 13.328571428571431;
                  } else {
                    var8 = 13.300000000000002;
                  }
                } else {
                  var8 = 13.385714285714286;
                }
              } else {
                var8 = 13.071428571428573;
              }
            }
          } else {
            if ((input[4]) <= (404.0)) {
              var8 = 12.92857142857143;
            } else {
              if ((input[1]) <= (344.0)) {
                var8 = 13.085714285714287;
              } else {
                var8 = 13.028571428571427;
              }
            }
          }
        } else {
          if ((input[4]) <= (404.0)) {
            var8 = 14.528571428571428;
          } else {
            if ((input[2]) <= (315.5)) {
              var8 = 13.457142857142857;
            } else {
              var8 = 13.114285714285714;
            }
          }
        }
      }
    }
  } else {
    if ((input[2]) <= (336.5)) {
      if ((input[3]) <= (397.0)) {
        var8 = 11.4;
      } else {
        if ((input[1]) <= (392.0)) {
          if ((input[2]) <= (321.0)) {
            if ((input[3]) <= (400.5)) {
              var8 = 13.357142857142858;
            } else {
              var8 = 13.742857142857144;
            }
          } else {
            if ((input[2]) <= (328.5)) {
              var8 = 12.885714285714286;
            } else {
              if ((input[3]) <= (411.0)) {
                var8 = 13.042857142857144;
              } else {
                var8 = 13.100000000000003;
              }
            }
          }
        } else {
          if ((input[0]) <= (286.0)) {
            if ((input[3]) <= (432.5)) {
              if ((input[5]) <= (105.5)) {
                var8 = 11.642857142857142;
              } else {
                var8 = 11.299999999999999;
              }
            } else {
              var8 = 12.057142857142855;
            }
          } else {
            var8 = 12.885714285714284;
          }
        }
      }
    } else {
      if ((input[3]) <= (442.0)) {
        if ((input[1]) <= (398.0)) {
          var8 = 14.542857142857143;
        } else {
          var8 = 14.085714285714285;
        }
      } else {
        if ((input[4]) <= (500.0)) {
          var8 = 13.299999999999999;
        } else {
          var8 = 12.771428571428572;
        }
      }
    }
  }
  double var9;
  if ((input[5]) <= (129.5)) {
    if ((input[4]) <= (426.5)) {
      if ((input[0]) <= (242.5)) {
        if ((input[0]) <= (225.5)) {
          if ((input[0]) <= (188.5)) {
            if ((input[2]) <= (310.0)) {
              if ((input[1]) <= (309.5)) {
                var9 = 14.042857142857141;
              } else {
                if ((input[5]) <= (100.5)) {
                  var9 = 14.299999999999999;
                } else {
                  var9 = 14.27142857142857;
                }
              }
            } else {
              var9 = 14.714285714285714;
            }
          } else {
            if ((input[1]) <= (361.0)) {
              if ((input[0]) <= (208.0)) {
                var9 = 12.414285714285715;
              } else {
                var9 = 13.2;
              }
            } else {
              if ((input[5]) <= (102.0)) {
                var9 = 13.742857142857142;
              } else {
                var9 = 14.52857142857143;
              }
            }
          }
        } else {
          if ((input[2]) <= (279.0)) {
            var9 = 15.485714285714284;
          } else {
            var9 = 14.471428571428572;
          }
        }
      } else {
        if ((input[5]) <= (111.5)) {
          if ((input[0]) <= (260.5)) {
            var9 = 13.228571428571428;
          } else {
            var9 = 13.414285714285715;
          }
        } else {
          if ((input[3]) <= (356.5)) {
            var9 = 12.92857142857143;
          } else {
            var9 = 13.114285714285714;
          }
        }
      }
    } else {
      if ((input[2]) <= (336.0)) {
        if ((input[4]) <= (468.5)) {
          if ((input[5]) <= (99.0)) {
            if ((input[1]) <= (342.5)) {
              if ((input[4]) <= (441.5)) {
                var9 = 13.5;
              } else {
                var9 = 13.357142857142858;
              }
            } else {
              if ((input[4]) <= (456.0)) {
                var9 = 13.814285714285715;
              } else {
                var9 = 13.57142857142857;
              }
            }
          } else {
            if ((input[0]) <= (188.0)) {
              var9 = 13.3;
            } else {
              if ((input[0]) <= (223.0)) {
                if ((input[2]) <= (331.5)) {
                  if ((input[3]) <= (403.5)) {
                    var9 = 13.042857142857141;
                  } else {
                    var9 = 12.985714285714286;
                  }
                } else {
                  var9 = 13.100000000000003;
                }
              } else {
                if ((input[2]) <= (311.5)) {
                  var9 = 12.814285714285715;
                } else {
                  var9 = 12.885714285714286;
                }
              }
            }
          }
        } else {
          if ((input[1]) <= (392.5)) {
            var9 = 11.4;
          } else {
            var9 = 12.885714285714284;
          }
        }
      } else {
        if ((input[5]) <= (104.5)) {
          if ((input[5]) <= (80.0)) {
            var9 = 12.771428571428572;
          } else {
            if ((input[1]) <= (397.5)) {
              var9 = 13.042857142857143;
            } else {
              if ((input[0]) <= (271.0)) {
                var9 = 13.471428571428573;
              } else {
                var9 = 13.299999999999999;
              }
            }
          }
        } else {
          if ((input[0]) <= (250.0)) {
            if ((input[2]) <= (347.5)) {
              var9 = 14.542857142857143;
            } else {
              var9 = 14.085714285714285;
            }
          } else {
            if ((input[4]) <= (486.5)) {
              var9 = 13.485714285714286;
            } else {
              if ((input[3]) <= (466.5)) {
                var9 = 13.885714285714286;
              } else {
                var9 = 13.871428571428572;
              }
            }
          }
        }
      }
    }
  } else {
    if ((input[2]) <= (339.5)) {
      var9 = 11.299999999999999;
    } else {
      var9 = 12.7;
    }
  }
  double var10;
  if ((input[4]) <= (411.0)) {
    if ((input[4]) <= (385.5)) {
      if ((input[3]) <= (349.0)) {
        if ((input[0]) <= (207.0)) {
          var10 = 14.299999999999999;
        } else {
          var10 = 13.442857142857141;
        }
      } else {
        var10 = 12.414285714285715;
      }
    } else {
      if ((input[4]) <= (391.5)) {
        if ((input[3]) <= (345.0)) {
          var10 = 14.471428571428572;
        } else {
          var10 = 15.485714285714284;
        }
      } else {
        if ((input[0]) <= (218.0)) {
          if ((input[0]) <= (210.5)) {
            if ((input[1]) <= (314.0)) {
              var10 = 14.042857142857141;
            } else {
              if ((input[4]) <= (409.0)) {
                if ((input[0]) <= (183.5)) {
                  var10 = 13.671428571428573;
                } else {
                  var10 = 13.742857142857144;
                }
              } else {
                var10 = 13.5;
              }
            }
          } else {
            var10 = 14.528571428571428;
          }
        } else {
          if ((input[3]) <= (344.5)) {
            var10 = 12.92857142857143;
          } else {
            if ((input[3]) <= (363.0)) {
              var10 = 13.228571428571428;
            } else {
              var10 = 13.2;
            }
          }
        }
      }
    }
  } else {
    if ((input[2]) <= (336.5)) {
      if ((input[1]) <= (381.0)) {
        if ((input[5]) <= (93.5)) {
          if ((input[1]) <= (332.0)) {
            var10 = 13.5;
          } else {
            var10 = 13.828571428571431;
          }
        } else {
          if ((input[2]) <= (314.5)) {
            if ((input[4]) <= (456.0)) {
              if ((input[2]) <= (287.0)) {
                var10 = 12.799999999999999;
              } else {
                if ((input[4]) <= (427.5)) {
                  if ((input[4]) <= (417.5)) {
                    var10 = 13.085714285714287;
                  } else {
                    var10 = 13.071428571428573;
                  }
                } else {
                  var10 = 13.042857142857141;
                }
              }
            } else {
              var10 = 12.785714285714286;
            }
          } else {
            if ((input[3]) <= (363.5)) {
              var10 = 13.414285714285715;
            } else {
              if ((input[1]) <= (370.0)) {
                var10 = 13.228571428571428;
              } else {
                if ((input[2]) <= (328.0)) {
                  var10 = 13.114285714285714;
                } else {
                  var10 = 13.100000000000003;
                }
              }
            }
          }
        }
      } else {
        if ((input[0]) <= (233.5)) {
          if ((input[1]) <= (397.5)) {
            if ((input[0]) <= (226.0)) {
              var10 = 11.642857142857142;
            } else {
              var10 = 11.4;
            }
          } else {
            var10 = 11.985714285714284;
          }
        } else {
          if ((input[2]) <= (327.5)) {
            if ((input[3]) <= (404.5)) {
              var10 = 13.357142857142858;
            } else {
              if ((input[0]) <= (270.0)) {
                var10 = 12.885714285714286;
              } else {
                var10 = 12.885714285714284;
              }
            }
          } else {
            if ((input[2]) <= (334.5)) {
              var10 = 11.299999999999999;
            } else {
              var10 = 12.057142857142855;
            }
          }
        }
      }
    } else {
      if ((input[5]) <= (107.0)) {
        if ((input[5]) <= (82.5)) {
          var10 = 13.471428571428573;
        } else {
          if ((input[1]) <= (427.5)) {
            if ((input[2]) <= (353.0)) {
              var10 = 13.014285714285714;
            } else {
              var10 = 13.042857142857143;
            }
          } else {
            var10 = 13.299999999999999;
          }
        }
      } else {
        if ((input[1]) <= (398.0)) {
          var10 = 14.542857142857143;
        } else {
          if ((input[5]) <= (121.0)) {
            var10 = 13.885714285714286;
          } else {
            var10 = 14.085714285714285;
          }
        }
      }
    }
  }
  double var11;
  if ((input[0]) <= (173.0)) {
    if ((input[3]) <= (392.5)) {
      if ((input[3]) <= (361.0)) {
        if ((input[5]) <= (104.0)) {
          var11 = 14.042857142857141;
        } else {
          var11 = 14.27142857142857;
        }
      } else {
        if ((input[3]) <= (375.5)) {
          var11 = 13.671428571428573;
        } else {
          var11 = 13.057142857142855;
        }
      }
    } else {
      var11 = 14.714285714285714;
    }
  } else {
    if ((input[2]) <= (336.5)) {
      if ((input[4]) <= (448.0)) {
        if ((input[5]) <= (98.0)) {
          if ((input[5]) <= (95.0)) {
            if ((input[3]) <= (383.0)) {
              if ((input[1]) <= (315.0)) {
                var11 = 13.5;
              } else {
                if ((input[4]) <= (397.0)) {
                  var11 = 13.228571428571428;
                } else {
                  var11 = 13.2;
                }
              }
            } else {
              if ((input[2]) <= (313.5)) {
                var11 = 13.828571428571431;
              } else {
                var11 = 13.742857142857144;
              }
            }
          } else {
            var11 = 15.485714285714284;
          }
        } else {
          if ((input[1]) <= (338.5)) {
            if ((input[5]) <= (121.0)) {
              if ((input[2]) <= (291.5)) {
                if ((input[5]) <= (111.0)) {
                  var11 = 13.171428571428573;
                } else {
                  var11 = 13.157142857142857;
                }
              } else {
                var11 = 13.085714285714287;
              }
            } else {
              var11 = 13.328571428571431;
            }
          } else {
            if ((input[0]) <= (261.0)) {
              if ((input[2]) <= (307.5)) {
                if ((input[4]) <= (430.5)) {
                  if ((input[0]) <= (238.5)) {
                    if ((input[5]) <= (104.0)) {
                      var11 = 12.799999999999999;
                    } else {
                      var11 = 12.814285714285715;
                    }
                  } else {
                    var11 = 12.92857142857143;
                  }
                } else {
                  var11 = 13.042857142857141;
                }
              } else {
                if ((input[4]) <= (435.0)) {
                  if ((input[3]) <= (378.0)) {
                    var11 = 13.028571428571427;
                  } else {
                    var11 = 13.071428571428573;
                  }
                } else {
                  var11 = 12.885714285714286;
                }
              }
            } else {
              var11 = 13.457142857142857;
            }
          }
        }
      } else {
        if ((input[3]) <= (393.5)) {
          if ((input[2]) <= (318.5)) {
            var11 = 13.357142857142858;
          } else {
            var11 = 13.57142857142857;
          }
        } else {
          if ((input[0]) <= (279.0)) {
            if ((input[3]) <= (422.0)) {
              if ((input[4]) <= (459.5)) {
                var11 = 11.642857142857142;
              } else {
                var11 = 11.4;
              }
            } else {
              var11 = 12.057142857142855;
            }
          } else {
            var11 = 12.885714285714284;
          }
        }
      }
    } else {
      if ((input[5]) <= (130.0)) {
        if ((input[5]) <= (113.5)) {
          if ((input[4]) <= (490.0)) {
            if ((input[4]) <= (477.5)) {
              if ((input[3]) <= (383.5)) {
                var11 = 13.442857142857141;
              } else {
                if ((input[0]) <= (263.0)) {
                  var11 = 13.471428571428573;
                } else {
                  var11 = 13.485714285714286;
                }
              }
            } else {
              var11 = 13.299999999999999;
            }
          } else {
            var11 = 13.871428571428572;
          }
        } else {
          if ((input[0]) <= (227.0)) {
            var11 = 14.542857142857143;
          } else {
            var11 = 14.085714285714284;
          }
        }
      } else {
        var11 = 12.7;
      }
    }
  }
  double var12;
  if ((input[1]) <= (395.5)) {
    if ((input[1]) <= (362.5)) {
      if ((input[3]) <= (344.0)) {
        if ((input[4]) <= (377.0)) {
          var12 = 14.299999999999999;
        } else {
          var12 = 14.471428571428572;
        }
      } else {
        if ((input[5]) <= (109.0)) {
          if ((input[4]) <= (389.0)) {
            var12 = 12.414285714285715;
          } else {
            if ((input[5]) <= (88.5)) {
              if ((input[2]) <= (298.0)) {
                var12 = 13.5;
              } else {
                var12 = 13.357142857142858;
              }
            } else {
              if ((input[4]) <= (429.5)) {
                if ((input[5]) <= (97.0)) {
                  if ((input[2]) <= (291.0)) {
                    var12 = 13.228571428571428;
                  } else {
                    var12 = 13.057142857142855;
                  }
                } else {
                  if ((input[3]) <= (383.5)) {
                    var12 = 12.799999999999999;
                  } else {
                    var12 = 12.814285714285715;
                  }
                }
              } else {
                if ((input[4]) <= (433.0)) {
                  var12 = 13.171428571428573;
                } else {
                  var12 = 13.3;
                }
              }
            }
          }
        } else {
          if ((input[0]) <= (183.5)) {
            var12 = 14.27142857142857;
          } else {
            if ((input[1]) <= (343.5)) {
              var12 = 13.328571428571431;
            } else {
              var12 = 13.071428571428573;
            }
          }
        }
      }
    } else {
      if ((input[0]) <= (222.5)) {
        if ((input[0]) <= (210.5)) {
          if ((input[2]) <= (319.0)) {
            if ((input[1]) <= (381.0)) {
              var12 = 13.828571428571431;
            } else {
              if ((input[2]) <= (314.5)) {
                var12 = 13.671428571428573;
              } else {
                var12 = 13.742857142857144;
              }
            }
          } else {
            var12 = 14.714285714285714;
          }
        } else {
          if ((input[0]) <= (214.0)) {
            var12 = 14.528571428571428;
          } else {
            var12 = 14.542857142857143;
          }
        }
      } else {
        if ((input[5]) <= (108.5)) {
          if ((input[1]) <= (380.5)) {
            if ((input[4]) <= (426.5)) {
              var12 = 13.414285714285715;
            } else {
              var12 = 13.457142857142857;
            }
          } else {
            var12 = 13.357142857142858;
          }
        } else {
          var12 = 13.042857142857144;
        }
      }
    }
  } else {
    if ((input[2]) <= (337.0)) {
      if ((input[0]) <= (286.0)) {
        if ((input[1]) <= (397.5)) {
          if ((input[4]) <= (471.5)) {
            var12 = 11.642857142857144;
          } else {
            var12 = 11.299999999999999;
          }
        } else {
          if ((input[5]) <= (105.5)) {
            if ((input[4]) <= (471.0)) {
              var12 = 11.985714285714284;
            } else {
              var12 = 12.057142857142855;
            }
          } else {
            var12 = 12.985714285714286;
          }
        }
      } else {
        if ((input[4]) <= (476.0)) {
          var12 = 13.57142857142857;
        } else {
          var12 = 12.885714285714284;
        }
      }
    } else {
      if ((input[5]) <= (111.5)) {
        if ((input[2]) <= (350.0)) {
          if ((input[0]) <= (229.0)) {
            var12 = 13.642857142857142;
          } else {
            if ((input[5]) <= (95.5)) {
              var12 = 13.471428571428573;
            } else {
              var12 = 13.485714285714286;
            }
          }
        } else {
          if ((input[1]) <= (427.5)) {
            if ((input[3]) <= (437.0)) {
              var12 = 13.014285714285714;
            } else {
              var12 = 13.042857142857143;
            }
          } else {
            var12 = 13.299999999999999;
          }
        }
      } else {
        if ((input[5]) <= (121.0)) {
          var12 = 13.885714285714286;
        } else {
          var12 = 14.085714285714285;
        }
      }
    }
  }
  double var13;
  if ((input[4]) <= (447.5)) {
    if ((input[0]) <= (157.0)) {
      var13 = 14.714285714285714;
    } else {
      if ((input[1]) <= (362.0)) {
        if ((input[4]) <= (440.5)) {
          if ((input[3]) <= (343.5)) {
            if ((input[3]) <= (338.5)) {
              var13 = 13.085714285714287;
            } else {
              var13 = 14.471428571428572;
            }
          } else {
            if ((input[2]) <= (290.0)) {
              if ((input[4]) <= (391.0)) {
                var13 = 12.414285714285715;
              } else {
                if ((input[4]) <= (423.0)) {
                  if ((input[0]) <= (209.0)) {
                    var13 = 12.799999999999999;
                  } else {
                    var13 = 12.92857142857143;
                  }
                } else {
                  var13 = 13.171428571428573;
                }
              }
            } else {
              if ((input[5]) <= (98.0)) {
                if ((input[0]) <= (194.5)) {
                  var13 = 13.057142857142855;
                } else {
                  var13 = 13.199999999999998;
                }
              } else {
                if ((input[2]) <= (307.5)) {
                  if ((input[0]) <= (197.0)) {
                    var13 = 13.3;
                  } else {
                    var13 = 13.328571428571431;
                  }
                } else {
                  var13 = 13.385714285714286;
                }
              }
            }
          }
        } else {
          var13 = 13.814285714285715;
        }
      } else {
        if ((input[1]) <= (365.5)) {
          var13 = 14.528571428571428;
        } else {
          if ((input[0]) <= (214.5)) {
            if ((input[2]) <= (311.0)) {
              var13 = 13.828571428571431;
            } else {
              if ((input[4]) <= (421.5)) {
                var13 = 13.671428571428573;
              } else {
                var13 = 13.642857142857142;
              }
            }
          } else {
            if ((input[4]) <= (418.0)) {
              var13 = 13.114285714285714;
            } else {
              if ((input[4]) <= (434.5)) {
                var13 = 13.414285714285715;
              } else {
                var13 = 13.328571428571427;
              }
            }
          }
        }
      }
    }
  } else {
    if ((input[2]) <= (337.5)) {
      if ((input[3]) <= (393.5)) {
        if ((input[1]) <= (364.5)) {
          var13 = 13.357142857142858;
        } else {
          var13 = 13.57142857142857;
        }
      } else {
        if ((input[0]) <= (224.0)) {
          if ((input[0]) <= (217.5)) {
            var13 = 12.985714285714286;
          } else {
            var13 = 12.785714285714286;
          }
        } else {
          if ((input[3]) <= (432.5)) {
            if ((input[0]) <= (226.0)) {
              var13 = 11.642857142857144;
            } else {
              if ((input[2]) <= (327.0)) {
                var13 = 11.4;
              } else {
                var13 = 11.299999999999999;
              }
            }
          } else {
            if ((input[3]) <= (452.5)) {
              var13 = 12.057142857142855;
            } else {
              var13 = 12.885714285714284;
            }
          }
        }
      }
    } else {
      if ((input[5]) <= (104.5)) {
        if ((input[0]) <= (281.5)) {
          if ((input[0]) <= (273.5)) {
            var13 = 13.042857142857143;
          } else {
            var13 = 13.014285714285714;
          }
        } else {
          var13 = 13.299999999999999;
        }
      } else {
        if ((input[3]) <= (448.0)) {
          if ((input[4]) <= (493.5)) {
            var13 = 13.485714285714286;
          } else {
            var13 = 13.671428571428573;
          }
        } else {
          if ((input[3]) <= (466.5)) {
            var13 = 13.885714285714286;
          } else {
            var13 = 13.871428571428572;
          }
        }
      }
    }
  }
  double var14;
  if ((input[2]) <= (278.5)) {
    if ((input[1]) <= (321.5)) {
      if ((input[5]) <= (85.5)) {
        var14 = 13.5;
      } else {
        var14 = 14.299999999999999;
      }
    } else {
      var14 = 15.485714285714286;
    }
  } else {
    if ((input[5]) <= (128.0)) {
      if ((input[0]) <= (157.0)) {
        if ((input[2]) <= (306.5)) {
          var14 = 14.042857142857141;
        } else {
          var14 = 14.714285714285714;
        }
      } else {
        if ((input[4]) <= (387.5)) {
          if ((input[2]) <= (283.5)) {
            var14 = 12.414285714285715;
          } else {
            var14 = 13.157142857142857;
          }
        } else {
          if ((input[4]) <= (396.0)) {
            if ((input[5]) <= (97.0)) {
              var14 = 13.228571428571428;
            } else {
              if ((input[0]) <= (227.5)) {
                var14 = 14.52857142857143;
              } else {
                var14 = 14.471428571428572;
              }
            }
          } else {
            if ((input[2]) <= (293.5)) {
              if ((input[2]) <= (290.5)) {
                if ((input[5]) <= (114.0)) {
                  var14 = 13.171428571428573;
                } else {
                  var14 = 12.92857142857143;
                }
              } else {
                var14 = 11.985714285714284;
              }
            } else {
              if ((input[4]) <= (496.5)) {
                if ((input[4]) <= (489.5)) {
                  if ((input[0]) <= (210.0)) {
                    if ((input[3]) <= (383.0)) {
                      var14 = 13.877142857142857;
                    } else {
                      var14 = 13.397959183673468;
                    }
                  } else {
                    if ((input[3]) <= (408.5)) {
                      var14 = 13.306493506493506;
                    } else {
                      var14 = 13.115873015873015;
                    }
                  }
                } else {
                  var14 = 12.057142857142855;
                }
              } else {
                if ((input[4]) <= (509.5)) {
                  var14 = 13.871428571428572;
                } else {
                  var14 = 13.885714285714286;
                }
              }
            }
          }
        }
      }
    } else {
      var14 = 11.299999999999999;
    }
  }
  double var15;
  if ((input[2]) <= (283.0)) {
    if ((input[0]) <= (206.0)) {
      var15 = 14.299999999999999;
    } else {
      var15 = 15.485714285714284;
    }
  } else {
    if ((input[5]) <= (129.5)) {
      if ((input[0]) <= (194.5)) {
        if ((input[5]) <= (82.5)) {
          var15 = 14.714285714285714;
        } else {
          if ((input[3]) <= (386.5)) {
            if ((input[0]) <= (176.5)) {
              var15 = 14.27142857142857;
            } else {
              if ((input[5]) <= (89.5)) {
                var15 = 13.828571428571431;
              } else {
                var15 = 13.814285714285715;
              }
            }
          } else {
            if ((input[1]) <= (351.5)) {
              var15 = 13.3;
            } else {
              var15 = 13.057142857142855;
            }
          }
        }
      } else {
        if ((input[5]) <= (98.5)) {
          if ((input[5]) <= (95.0)) {
            if ((input[1]) <= (408.5)) {
              if ((input[3]) <= (391.5)) {
                var15 = 13.2;
              } else {
                if ((input[3]) <= (417.5)) {
                  var15 = 13.742857142857144;
                } else {
                  var15 = 13.471428571428573;
                }
              }
            } else {
              if ((input[4]) <= (497.0)) {
                var15 = 13.014285714285714;
              } else {
                var15 = 12.771428571428572;
              }
            }
          } else {
            if ((input[2]) <= (314.5)) {
              var15 = 11.985714285714284;
            } else {
              var15 = 12.057142857142855;
            }
          }
        } else {
          if ((input[4]) <= (495.0)) {
            if ((input[5]) <= (122.5)) {
              if ((input[4]) <= (404.0)) {
                if ((input[1]) <= (362.0)) {
                  if ((input[1]) <= (330.5)) {
                    var15 = 13.157142857142857;
                  } else {
                    if ((input[2]) <= (354.5)) {
                      var15 = 13.357142857142858;
                    } else {
                      var15 = 13.442857142857141;
                    }
                  }
                } else {
                  var15 = 14.528571428571428;
                }
              } else {
                if ((input[1]) <= (361.5)) {
                  if ((input[4]) <= (411.5)) {
                    var15 = 13.028571428571427;
                  } else {
                    if ((input[4]) <= (427.5)) {
                      var15 = 13.07857142857143;
                    } else {
                      var15 = 13.042857142857141;
                    }
                  }
                } else {
                  if ((input[0]) <= (218.0)) {
                    if ((input[1]) <= (392.5)) {
                      var15 = 13.100000000000003;
                    } else {
                      var15 = 12.985714285714286;
                    }
                  } else {
                    if ((input[1]) <= (376.0)) {
                      var15 = 13.414285714285715;
                    } else {
                      var15 = 13.338095238095237;
                    }
                  }
                }
              }
            } else {
              if ((input[2]) <= (300.0)) {
                var15 = 12.92857142857143;
              } else {
                var15 = 12.785714285714286;
              }
            }
          } else {
            if ((input[5]) <= (112.0)) {
              var15 = 13.671428571428573;
            } else {
              if ((input[2]) <= (362.5)) {
                var15 = 14.085714285714285;
              } else {
                var15 = 13.885714285714286;
              }
            }
          }
        }
      }
    } else {
      var15 = 11.299999999999999;
    }
  }
  double var16;
  if ((input[4]) <= (446.0)) {
    if ((input[5]) <= (98.0)) {
      if ((input[5]) <= (95.0)) {
        if ((input[3]) <= (391.0)) {
          if ((input[4]) <= (378.5)) {
            var16 = 14.299999999999999;
          } else {
            if ((input[0]) <= (208.0)) {
              if ((input[2]) <= (287.0)) {
                var16 = 13.5;
              } else {
                if ((input[5]) <= (85.0)) {
                  var16 = 13.671428571428573;
                } else {
                  if ((input[0]) <= (187.5)) {
                    var16 = 13.828571428571431;
                  } else {
                    var16 = 13.814285714285715;
                  }
                }
              }
            } else {
              if ((input[3]) <= (363.0)) {
                var16 = 13.228571428571428;
              } else {
                var16 = 13.2;
              }
            }
          }
        } else {
          var16 = 14.714285714285714;
        }
      } else {
        var16 = 15.485714285714284;
      }
    } else {
      if ((input[2]) <= (286.0)) {
        if ((input[5]) <= (103.5)) {
          var16 = 12.799999999999999;
        } else {
          var16 = 12.414285714285715;
        }
      } else {
        if ((input[2]) <= (294.5)) {
          if ((input[2]) <= (290.5)) {
            var16 = 13.157142857142857;
          } else {
            var16 = 14.528571428571428;
          }
        } else {
          if ((input[3]) <= (389.5)) {
            if ((input[4]) <= (433.0)) {
              if ((input[1]) <= (372.5)) {
                if ((input[3]) <= (372.0)) {
                  var16 = 13.414285714285715;
                } else {
                  var16 = 13.385714285714286;
                }
              } else {
                var16 = 13.457142857142857;
              }
            } else {
              var16 = 13.3;
            }
          } else {
            if ((input[2]) <= (307.5)) {
              var16 = 12.814285714285715;
            } else {
              if ((input[3]) <= (412.0)) {
                if ((input[2]) <= (325.0)) {
                  var16 = 13.071428571428573;
                } else {
                  var16 = 13.042857142857144;
                }
              } else {
                var16 = 13.228571428571428;
              }
            }
          }
        }
      }
    }
  } else {
    if ((input[1]) <= (397.5)) {
      if ((input[5]) <= (127.0)) {
        if ((input[0]) <= (233.5)) {
          if ((input[5]) <= (117.5)) {
            if ((input[3]) <= (402.0)) {
              var16 = 11.4;
            } else {
              var16 = 11.642857142857142;
            }
          } else {
            var16 = 12.785714285714286;
          }
        } else {
          if ((input[2]) <= (321.0)) {
            var16 = 13.357142857142858;
          } else {
            if ((input[1]) <= (391.0)) {
              var16 = 12.885714285714286;
            } else {
              var16 = 13.042857142857143;
            }
          }
        }
      } else {
        var16 = 11.299999999999999;
      }
    } else {
      if ((input[2]) <= (306.0)) {
        var16 = 11.985714285714284;
      } else {
        if ((input[4]) <= (474.5)) {
          if ((input[4]) <= (459.0)) {
            var16 = 12.985714285714286;
          } else {
            if ((input[2]) <= (330.5)) {
              var16 = 13.57142857142857;
            } else {
              if ((input[3]) <= (430.0)) {
                var16 = 13.485714285714286;
              } else {
                var16 = 13.471428571428573;
              }
            }
          }
        } else {
          if ((input[1]) <= (427.5)) {
            if ((input[3]) <= (433.5)) {
              var16 = 13.014285714285714;
            } else {
              if ((input[2]) <= (348.5)) {
                var16 = 12.885714285714284;
              } else {
                var16 = 12.771428571428572;
              }
            }
          } else {
            var16 = 13.299999999999999;
          }
        }
      }
    }
  }
  double var17;
  if ((input[2]) <= (282.0)) {
    if ((input[0]) <= (206.0)) {
      if ((input[4]) <= (387.0)) {
        var17 = 14.299999999999999;
      } else {
        var17 = 13.5;
      }
    } else {
      if ((input[1]) <= (334.5)) {
        var17 = 15.485714285714284;
      } else {
        var17 = 14.471428571428572;
      }
    }
  } else {
    if ((input[4]) <= (469.0)) {
      if ((input[2]) <= (295.5)) {
        if ((input[5]) <= (98.0)) {
          var17 = 11.985714285714286;
        } else {
          if ((input[3]) <= (369.5)) {
            if ((input[1]) <= (338.5)) {
              if ((input[4]) <= (371.0)) {
                var17 = 13.328571428571431;
              } else {
                if ((input[2]) <= (291.5)) {
                  var17 = 13.157142857142857;
                } else {
                  var17 = 13.085714285714287;
                }
              }
            } else {
              if ((input[1]) <= (350.0)) {
                var17 = 12.799999999999999;
              } else {
                var17 = 12.92857142857143;
              }
            }
          } else {
            var17 = 14.528571428571428;
          }
        }
      } else {
        if ((input[4]) <= (467.5)) {
          if ((input[5]) <= (79.5)) {
            var17 = 14.714285714285714;
          } else {
            if ((input[3]) <= (385.5)) {
              if ((input[5]) <= (108.0)) {
                if ((input[0]) <= (211.5)) {
                  if ((input[1]) <= (386.0)) {
                    if ((input[4]) <= (434.0)) {
                      var17 = 13.828571428571431;
                    } else {
                      var17 = 13.814285714285715;
                    }
                  } else {
                    var17 = 13.671428571428573;
                  }
                } else {
                  if ((input[2]) <= (350.0)) {
                    var17 = 13.457142857142857;
                  } else {
                    var17 = 13.442857142857141;
                  }
                }
              } else {
                var17 = 14.27142857142857;
              }
            } else {
              if ((input[5]) <= (102.0)) {
                if ((input[0]) <= (185.5)) {
                  var17 = 13.057142857142855;
                } else {
                  if ((input[0]) <= (226.0)) {
                    if ((input[1]) <= (393.5)) {
                      var17 = 13.742857142857144;
                    } else {
                      var17 = 13.642857142857142;
                    }
                  } else {
                    if ((input[2]) <= (318.5)) {
                      var17 = 13.357142857142858;
                    } else {
                      var17 = 13.521428571428572;
                    }
                  }
                }
              } else {
                if ((input[4]) <= (410.0)) {
                  var17 = 13.385714285714286;
                } else {
                  if ((input[3]) <= (406.0)) {
                    if ((input[0]) <= (213.0)) {
                      var17 = 13.071428571428573;
                    } else {
                      var17 = 13.042857142857144;
                    }
                  } else {
                    if ((input[0]) <= (226.0)) {
                      var17 = 12.985714285714286;
                    } else {
                      var17 = 12.885714285714286;
                    }
                  }
                }
              }
            }
          }
        } else {
          var17 = 14.542857142857143;
        }
      }
    } else {
      if ((input[2]) <= (341.0)) {
        if ((input[0]) <= (225.0)) {
          var17 = 12.785714285714286;
        } else {
          if ((input[2]) <= (334.5)) {
            if ((input[2]) <= (327.0)) {
              var17 = 11.4;
            } else {
              var17 = 11.299999999999999;
            }
          } else {
            var17 = 12.057142857142855;
          }
        }
      } else {
        if ((input[2]) <= (353.0)) {
          if ((input[5]) <= (109.0)) {
            var17 = 13.014285714285714;
          } else {
            var17 = 12.7;
          }
        } else {
          if ((input[5]) <= (115.0)) {
            if ((input[2]) <= (366.0)) {
              var17 = 13.299999999999999;
            } else {
              var17 = 12.771428571428572;
            }
          } else {
            var17 = 14.085714285714285;
          }
        }
      }
    }
  }
  double var18;
  if ((input[4]) <= (391.5)) {
    if ((input[5]) <= (98.0)) {
      var18 = 15.485714285714284;
    } else {
      var18 = 14.471428571428572;
    }
  } else {
    if ((input[2]) <= (336.5)) {
      if ((input[4]) <= (447.5)) {
        if ((input[0]) <= (159.5)) {
          if ((input[4]) <= (411.5)) {
            if ((input[0]) <= (151.5)) {
              var18 = 14.042857142857141;
            } else {
              var18 = 13.671428571428573;
            }
          } else {
            var18 = 14.714285714285714;
          }
        } else {
          if ((input[5]) <= (108.5)) {
            if ((input[2]) <= (278.5)) {
              var18 = 13.5;
            } else {
              if ((input[0]) <= (177.5)) {
                if ((input[0]) <= (170.5)) {
                  var18 = 13.057142857142855;
                } else {
                  var18 = 12.799999999999999;
                }
              } else {
                if ((input[0]) <= (255.5)) {
                  if ((input[4]) <= (434.0)) {
                    if ((input[4]) <= (431.0)) {
                      var18 = 13.21904761904762;
                    } else {
                      var18 = 13.042857142857141;
                    }
                  } else {
                    var18 = 13.3;
                  }
                } else {
                  if ((input[5]) <= (105.5)) {
                    var18 = 13.414285714285715;
                  } else {
                    var18 = 13.457142857142857;
                  }
                }
              }
            }
          } else {
            if ((input[5]) <= (121.0)) {
              if ((input[2]) <= (322.5)) {
                if ((input[1]) <= (366.5)) {
                  if ((input[1]) <= (343.5)) {
                    var18 = 13.085714285714287;
                  } else {
                    var18 = 13.071428571428573;
                  }
                } else {
                  var18 = 13.114285714285714;
                }
              } else {
                if ((input[0]) <= (243.5)) {
                  var18 = 13.042857142857144;
                } else {
                  var18 = 13.028571428571427;
                }
              }
            } else {
              if ((input[2]) <= (305.0)) {
                var18 = 12.92857142857143;
              } else {
                var18 = 12.885714285714286;
              }
            }
          }
        }
      } else {
        if ((input[5]) <= (94.5)) {
          if ((input[2]) <= (318.5)) {
            var18 = 13.357142857142858;
          } else {
            var18 = 13.57142857142857;
          }
        } else {
          if ((input[3]) <= (397.0)) {
            if ((input[1]) <= (390.5)) {
              var18 = 11.4;
            } else {
              var18 = 11.985714285714286;
            }
          } else {
            if ((input[1]) <= (409.0)) {
              if ((input[5]) <= (119.0)) {
                if ((input[3]) <= (409.5)) {
                  var18 = 13.357142857142858;
                } else {
                  var18 = 13.100000000000003;
                }
              } else {
                var18 = 12.785714285714286;
              }
            } else {
              var18 = 12.057142857142855;
            }
          }
        }
      }
    } else {
      if ((input[2]) <= (337.5)) {
        var18 = 14.542857142857143;
      } else {
        if ((input[4]) <= (487.0)) {
          if ((input[4]) <= (459.0)) {
            if ((input[0]) <= (214.5)) {
              var18 = 13.642857142857142;
            } else {
              var18 = 13.328571428571427;
            }
          } else {
            if ((input[5]) <= (120.5)) {
              if ((input[2]) <= (350.0)) {
                var18 = 13.485714285714286;
              } else {
                if ((input[2]) <= (353.0)) {
                  var18 = 13.014285714285714;
                } else {
                  var18 = 13.042857142857143;
                }
              }
            } else {
              var18 = 12.7;
            }
          }
        } else {
          if ((input[3]) <= (448.0)) {
            var18 = 13.671428571428573;
          } else {
            if ((input[3]) <= (466.5)) {
              var18 = 13.885714285714286;
            } else {
              var18 = 13.871428571428572;
            }
          }
        }
      }
    }
  }
  double var19;
  if ((input[4]) <= (391.5)) {
    if ((input[5]) <= (110.0)) {
      if ((input[3]) <= (345.0)) {
        if ((input[5]) <= (95.5)) {
          var19 = 14.299999999999999;
        } else {
          var19 = 14.47142857142857;
        }
      } else {
        var19 = 15.485714285714284;
      }
    } else {
      if ((input[5]) <= (121.0)) {
        var19 = 13.157142857142857;
      } else {
        var19 = 13.328571428571431;
      }
    }
  } else {
    if ((input[5]) <= (129.5)) {
      if ((input[2]) <= (336.5)) {
        if ((input[4]) <= (468.5)) {
          if ((input[0]) <= (173.0)) {
            if ((input[3]) <= (364.5)) {
              if ((input[5]) <= (104.0)) {
                var19 = 14.042857142857141;
              } else {
                var19 = 14.27142857142857;
              }
            } else {
              if ((input[0]) <= (157.5)) {
                var19 = 14.714285714285714;
              } else {
                if ((input[3]) <= (379.0)) {
                  var19 = 13.5;
                } else {
                  var19 = 13.057142857142855;
                }
              }
            }
          } else {
            if ((input[5]) <= (95.0)) {
              if ((input[1]) <= (349.0)) {
                var19 = 13.228571428571428;
              } else {
                if ((input[0]) <= (255.0)) {
                  if ((input[4]) <= (426.5)) {
                    var19 = 13.742857142857142;
                  } else {
                    var19 = 13.814285714285715;
                  }
                } else {
                  var19 = 13.57142857142857;
                }
              }
            } else {
              if ((input[5]) <= (98.0)) {
                var19 = 11.985714285714284;
              } else {
                if ((input[0]) <= (254.0)) {
                  if ((input[4]) <= (429.5)) {
                    if ((input[3]) <= (355.0)) {
                      var19 = 12.92857142857143;
                    } else {
                      var19 = 12.807142857142857;
                    }
                  } else {
                    if ((input[4]) <= (445.0)) {
                      var19 = 13.1375;
                    } else {
                      var19 = 12.885714285714286;
                    }
                  }
                } else {
                  if ((input[5]) <= (107.5)) {
                    if ((input[0]) <= (270.0)) {
                      var19 = 13.457142857142857;
                    } else {
                      var19 = 13.414285714285716;
                    }
                  } else {
                    if ((input[1]) <= (356.0)) {
                      var19 = 13.085714285714287;
                    } else {
                      var19 = 13.114285714285714;
                    }
                  }
                }
              }
            }
          }
        } else {
          var19 = 11.4;
        }
      } else {
        if ((input[5]) <= (114.0)) {
          if ((input[2]) <= (340.5)) {
            if ((input[1]) <= (410.5)) {
              var19 = 13.642857142857142;
            } else {
              var19 = 13.871428571428572;
            }
          } else {
            if ((input[1]) <= (439.5)) {
              if ((input[4]) <= (470.5)) {
                var19 = 13.471428571428573;
              } else {
                var19 = 13.299999999999999;
              }
            } else {
              var19 = 13.671428571428573;
            }
          }
        } else {
          if ((input[0]) <= (227.0)) {
            var19 = 14.542857142857143;
          } else {
            var19 = 14.085714285714284;
          }
        }
      }
    } else {
      var19 = 11.299999999999999;
    }
  }
  double var20;
  if ((input[2]) <= (278.5)) {
    if ((input[0]) <= (203.0)) {
      var20 = 13.5;
    } else {
      var20 = 15.485714285714284;
    }
  } else {
    if ((input[1]) <= (392.0)) {
      if ((input[4]) <= (469.0)) {
        if ((input[4]) <= (460.0)) {
          if ((input[2]) <= (279.5)) {
            if ((input[0]) <= (189.0)) {
              var20 = 13.171428571428573;
            } else {
              var20 = 12.414285714285715;
            }
          } else {
            if ((input[4]) <= (407.0)) {
              if ((input[0]) <= (213.5)) {
                if ((input[4]) <= (399.0)) {
                  var20 = 14.528571428571428;
                } else {
                  var20 = 14.27142857142857;
                }
              } else {
                if ((input[2]) <= (281.5)) {
                  var20 = 14.471428571428572;
                } else {
                  if ((input[5]) <= (124.0)) {
                    if ((input[2]) <= (287.5)) {
                      var20 = 13.228571428571428;
                    } else {
                      var20 = 13.385714285714286;
                    }
                  } else {
                    var20 = 12.92857142857143;
                  }
                }
              }
            } else {
              if ((input[5]) <= (107.5)) {
                if ((input[1]) <= (353.5)) {
                  if ((input[3]) <= (388.5)) {
                    var20 = 13.057142857142855;
                  } else {
                    if ((input[5]) <= (97.5)) {
                      var20 = 13.357142857142858;
                    } else {
                      var20 = 13.3;
                    }
                  }
                } else {
                  if ((input[5]) <= (98.5)) {
                    var20 = 13.814285714285715;
                  } else {
                    var20 = 13.414285714285715;
                  }
                }
              } else {
                if ((input[0]) <= (227.0)) {
                  if ((input[4]) <= (448.5)) {
                    if ((input[3]) <= (414.5)) {
                      var20 = 13.328571428571427;
                    } else {
                      var20 = 13.228571428571428;
                    }
                  } else {
                    var20 = 13.100000000000003;
                  }
                } else {
                  if ((input[4]) <= (420.5)) {
                    if ((input[2]) <= (309.5)) {
                      var20 = 13.085714285714287;
                    } else {
                      var20 = 13.028571428571427;
                    }
                  } else {
                    if ((input[1]) <= (386.0)) {
                      var20 = 12.861904761904762;
                    } else {
                      var20 = 13.042857142857144;
                    }
                  }
                }
              }
            }
          }
        } else {
          var20 = 14.542857142857143;
        }
      } else {
        if ((input[4]) <= (471.0)) {
          var20 = 11.4;
        } else {
          if ((input[2]) <= (333.0)) {
            var20 = 13.357142857142858;
          } else {
            var20 = 12.7;
          }
        }
      }
    } else {
      if ((input[0]) <= (272.5)) {
        if ((input[2]) <= (337.0)) {
          if ((input[1]) <= (397.5)) {
            if ((input[3]) <= (419.5)) {
              var20 = 11.642857142857142;
            } else {
              var20 = 11.299999999999999;
            }
          } else {
            if ((input[5]) <= (105.5)) {
              if ((input[0]) <= (230.5)) {
                var20 = 11.985714285714284;
              } else {
                var20 = 12.057142857142855;
              }
            } else {
              var20 = 12.985714285714286;
            }
          }
        } else {
          if ((input[5]) <= (81.5)) {
            var20 = 13.471428571428573;
          } else {
            var20 = 13.642857142857142;
          }
        }
      } else {
        if ((input[5]) <= (90.0)) {
          if ((input[4]) <= (480.0)) {
            if ((input[0]) <= (273.5)) {
              var20 = 13.042857142857143;
            } else {
              var20 = 13.014285714285714;
            }
          } else {
            var20 = 12.885714285714284;
          }
        } else {
          if ((input[0]) <= (290.5)) {
            var20 = 13.885714285714286;
          } else {
            if ((input[2]) <= (339.5)) {
              var20 = 13.57142857142857;
            } else {
              var20 = 13.671428571428573;
            }
          }
        }
      }
    }
  }
  double var21;
  if ((input[2]) <= (280.5)) {
    if ((input[4]) <= (398.0)) {
      var21 = 15.485714285714284;
    } else {
      var21 = 13.5;
    }
  } else {
    if ((input[0]) <= (194.5)) {
      if ((input[3]) <= (387.5)) {
        if ((input[5]) <= (101.0)) {
          if ((input[1]) <= (374.0)) {
            var21 = 13.814285714285715;
          } else {
            var21 = 13.671428571428573;
          }
        } else {
          var21 = 14.27142857142857;
        }
      } else {
        var21 = 14.714285714285714;
      }
    } else {
      if ((input[4]) <= (496.5)) {
        if ((input[4]) <= (489.0)) {
          if ((input[5]) <= (123.0)) {
            if ((input[0]) <= (200.5)) {
              if ((input[1]) <= (349.0)) {
                var21 = 13.04285714285714;
              } else {
                var21 = 13.071428571428575;
              }
            } else {
              if ((input[0]) <= (219.0)) {
                if ((input[0]) <= (214.5)) {
                  if ((input[5]) <= (112.5)) {
                    if ((input[5]) <= (102.0)) {
                      var21 = 13.692857142857143;
                    } else {
                      var21 = 14.528571428571428;
                    }
                  } else {
                    if ((input[5]) <= (118.5)) {
                      var21 = 12.985714285714286;
                    } else {
                      var21 = 13.328571428571431;
                    }
                  }
                } else {
                  var21 = 14.542857142857143;
                }
              } else {
                if ((input[5]) <= (108.5)) {
                  if ((input[5]) <= (103.0)) {
                    if ((input[0]) <= (263.0)) {
                      var21 = 13.291836734693877;
                    } else {
                      var21 = 13.119047619047619;
                    }
                  } else {
                    if ((input[1]) <= (380.5)) {
                      var21 = 13.445238095238096;
                    } else {
                      var21 = 13.357142857142858;
                    }
                  }
                } else {
                  if ((input[3]) <= (404.5)) {
                    if ((input[1]) <= (383.0)) {
                      var21 = 13.114285714285714;
                    } else {
                      var21 = 13.042857142857144;
                    }
                  } else {
                    var21 = 13.328571428571427;
                  }
                }
              }
            }
          } else {
            if ((input[4]) <= (459.5)) {
              if ((input[1]) <= (370.5)) {
                var21 = 12.92857142857143;
              } else {
                var21 = 12.885714285714286;
              }
            } else {
              var21 = 12.7;
            }
          }
        } else {
          var21 = 12.057142857142855;
        }
      } else {
        if ((input[5]) <= (93.5)) {
          var21 = 12.771428571428572;
        } else {
          if ((input[0]) <= (295.0)) {
            if ((input[1]) <= (415.0)) {
              var21 = 14.085714285714285;
            } else {
              if ((input[3]) <= (466.5)) {
                var21 = 13.885714285714286;
              } else {
                var21 = 13.871428571428572;
              }
            }
          } else {
            var21 = 13.671428571428573;
          }
        }
      }
    }
  }
  double var22;
  if ((input[5]) <= (126.5)) {
    if ((input[2]) <= (336.5)) {
      if ((input[4]) <= (445.5)) {
        if ((input[5]) <= (102.5)) {
          if ((input[4]) <= (391.5)) {
            if ((input[3]) <= (345.0)) {
              if ((input[0]) <= (213.0)) {
                var22 = 14.299999999999999;
              } else {
                var22 = 14.471428571428572;
              }
            } else {
              var22 = 15.485714285714284;
            }
          } else {
            if ((input[1]) <= (368.5)) {
              if ((input[2]) <= (280.5)) {
                var22 = 13.5;
              } else {
                if ((input[0]) <= (199.0)) {
                  var22 = 12.799999999999999;
                } else {
                  if ((input[3]) <= (363.0)) {
                    var22 = 13.228571428571428;
                  } else {
                    var22 = 13.2;
                  }
                }
              }
            } else {
              if ((input[0]) <= (170.5)) {
                var22 = 13.671428571428573;
              } else {
                var22 = 13.828571428571431;
              }
            }
          }
        } else {
          if ((input[0]) <= (175.5)) {
            var22 = 14.27142857142857;
          } else {
            if ((input[2]) <= (283.5)) {
              var22 = 12.414285714285715;
            } else {
              if ((input[0]) <= (274.5)) {
                if ((input[4]) <= (404.0)) {
                  if ((input[3]) <= (353.0)) {
                    var22 = 13.157142857142857;
                  } else {
                    if ((input[3]) <= (371.5)) {
                      var22 = 13.328571428571431;
                    } else {
                      var22 = 13.385714285714286;
                    }
                  }
                } else {
                  if ((input[0]) <= (188.0)) {
                    var22 = 13.3;
                  } else {
                    if ((input[3]) <= (394.0)) {
                      var22 = 13.082539682539682;
                    } else {
                      var22 = 12.92857142857143;
                    }
                  }
                }
              } else {
                var22 = 13.414285714285715;
              }
            }
          }
        }
      } else {
        if ((input[0]) <= (235.5)) {
          if ((input[1]) <= (380.0)) {
            var22 = 12.785714285714286;
          } else {
            if ((input[2]) <= (305.5)) {
              var22 = 11.985714285714284;
            } else {
              if ((input[2]) <= (319.5)) {
                var22 = 11.642857142857142;
              } else {
                var22 = 11.4;
              }
            }
          }
        } else {
          if ((input[4]) <= (484.5)) {
            if ((input[1]) <= (391.0)) {
              var22 = 13.357142857142858;
            } else {
              var22 = 13.57142857142857;
            }
          } else {
            var22 = 12.885714285714284;
          }
        }
      }
    } else {
      if ((input[5]) <= (106.5)) {
        if ((input[0]) <= (251.5)) {
          if ((input[3]) <= (368.5)) {
            var22 = 13.442857142857141;
          } else {
            var22 = 13.642857142857142;
          }
        } else {
          if ((input[5]) <= (94.0)) {
            if ((input[4]) <= (497.0)) {
              var22 = 13.014285714285714;
            } else {
              var22 = 12.771428571428572;
            }
          } else {
            var22 = 13.299999999999999;
          }
        }
      } else {
        if ((input[5]) <= (115.0)) {
          if ((input[3]) <= (448.0)) {
            var22 = 13.671428571428573;
          } else {
            if ((input[3]) <= (466.5)) {
              var22 = 13.885714285714286;
            } else {
              var22 = 13.871428571428572;
            }
          }
        } else {
          var22 = 14.542857142857143;
        }
      }
    }
  } else {
    var22 = 11.299999999999999;
  }
  double var23;
  if ((input[5]) <= (129.5)) {
    if ((input[0]) <= (157.5)) {
      if ((input[0]) <= (149.5)) {
        var23 = 14.042857142857141;
      } else {
        var23 = 14.714285714285714;
      }
    } else {
      if ((input[1]) <= (362.5)) {
        if ((input[5]) <= (106.0)) {
          if ((input[1]) <= (340.0)) {
            if ((input[3]) <= (370.5)) {
              if ((input[0]) <= (204.0)) {
                var23 = 13.5;
              } else {
                var23 = 13.442857142857141;
              }
            } else {
              if ((input[5]) <= (95.0)) {
                var23 = 13.357142857142858;
              } else {
                var23 = 13.171428571428573;
              }
            }
          } else {
            if ((input[5]) <= (97.0)) {
              if ((input[0]) <= (194.5)) {
                var23 = 13.057142857142855;
              } else {
                if ((input[3]) <= (363.0)) {
                  var23 = 13.228571428571428;
                } else {
                  var23 = 13.2;
                }
              }
            } else {
              var23 = 12.799999999999999;
            }
          }
        } else {
          if ((input[4]) <= (391.0)) {
            var23 = 12.414285714285715;
          } else {
            if ((input[1]) <= (355.0)) {
              if ((input[0]) <= (235.0)) {
                var23 = 13.071428571428573;
              } else {
                var23 = 13.085714285714287;
              }
            } else {
              if ((input[2]) <= (294.5)) {
                var23 = 12.92857142857143;
              } else {
                var23 = 12.814285714285715;
              }
            }
          }
        }
      } else {
        if ((input[1]) <= (365.5)) {
          var23 = 14.528571428571428;
        } else {
          if ((input[0]) <= (239.5)) {
            if ((input[1]) <= (377.5)) {
              if ((input[4]) <= (465.5)) {
                var23 = 13.100000000000003;
              } else {
                var23 = 12.785714285714286;
              }
            } else {
              if ((input[1]) <= (412.5)) {
                if ((input[0]) <= (211.5)) {
                  if ((input[3]) <= (391.0)) {
                    var23 = 13.828571428571431;
                  } else {
                    if ((input[1]) <= (393.5)) {
                      var23 = 13.742857142857144;
                    } else {
                      var23 = 13.642857142857142;
                    }
                  }
                } else {
                  if ((input[0]) <= (227.0)) {
                    var23 = 14.542857142857143;
                  } else {
                    var23 = 14.085714285714284;
                  }
                }
              } else {
                var23 = 12.985714285714286;
              }
            }
          } else {
            if ((input[5]) <= (114.0)) {
              if ((input[1]) <= (418.5)) {
                if ((input[0]) <= (287.5)) {
                  if ((input[4]) <= (491.5)) {
                    if ((input[2]) <= (331.0)) {
                      var23 = 13.385714285714286;
                    } else {
                      var23 = 13.47857142857143;
                    }
                  } else {
                    var23 = 13.871428571428572;
                  }
                } else {
                  var23 = 12.885714285714284;
                }
              } else {
                if ((input[2]) <= (364.0)) {
                  var23 = 13.014285714285714;
                } else {
                  var23 = 12.771428571428572;
                }
              }
            } else {
              if ((input[5]) <= (121.0)) {
                var23 = 13.114285714285714;
              } else {
                var23 = 12.885714285714286;
              }
            }
          }
        }
      }
    }
  } else {
    if ((input[3]) <= (412.5)) {
      var23 = 12.7;
    } else {
      var23 = 11.299999999999999;
    }
  }
  double var24;
  if ((input[3]) <= (343.5)) {
    if ((input[3]) <= (342.5)) {
      var24 = 14.042857142857141;
    } else {
      var24 = 14.471428571428572;
    }
  } else {
    if ((input[2]) <= (278.5)) {
      if ((input[3]) <= (357.0)) {
        var24 = 15.485714285714284;
      } else {
        var24 = 13.5;
      }
    } else {
      if ((input[2]) <= (336.5)) {
        if ((input[4]) <= (468.5)) {
          if ((input[0]) <= (173.0)) {
            var24 = 14.27142857142857;
          } else {
            if ((input[5]) <= (97.0)) {
              if ((input[3]) <= (405.5)) {
                if ((input[0]) <= (215.5)) {
                  if ((input[5]) <= (93.0)) {
                    var24 = 13.814285714285715;
                  } else {
                    var24 = 13.742857142857144;
                  }
                } else {
                  if ((input[0]) <= (274.0)) {
                    if ((input[2]) <= (306.0)) {
                      var24 = 13.209523809523809;
                    } else {
                      var24 = 13.357142857142858;
                    }
                  } else {
                    var24 = 13.57142857142857;
                  }
                }
              } else {
                var24 = 11.642857142857142;
              }
            } else {
              if ((input[0]) <= (194.5)) {
                if ((input[5]) <= (104.5)) {
